{
"Network": {
	"Layer 0": {
		"neuron 0": {
			"w": [-0.529605,1.14012,-0.0910381,-0.406727],
			"b":0.581601
		},
		"neuron 1": {
			"w": [-1.1507,0.830765,0.207063,0.390498],
			"b":0.277264
		},
		"neuron 2": {
			"w": [0.628857,1.42598,-0.494004,-0.440648],
			"b":0.0183367
		},
		"neuron 3": {
			"w": [-0.27003,0.869913,0.628785,-0.687844],
			"b":-0.242704
		},
		"neuron 4": {
			"w": [-1.23935,0.883393,-0.0376408,-0.529604],
			"b":0.140117
		},
		"neuron 5": {
			"w": [-0.660373,-0.91331,-0.10945,0.417346],
			"b":-0.241103
		},
		"neuron 6": {
			"w": [-1.18379,0.96588,0.513608,0.516656],
			"b":-0.381874
		},
		"neuron 7": {
			"w": [0.246575,0.271942,1.0255,-0.465057],
			"b":-0.237175
		},
		"neuron 8": {
			"w": [0.853937,0.163232,-0.683557,-0.247697],
			"b":-0.246642
		},
		"neuron 9": {
			"w": [0.226864,-0.251287,0.940914,0.171263],
			"b":-0.543173
		},
		"neuron 10": {
			"w": [-0.678072,0.23931,-1.80577,1.22849],
			"b":0.578995
		},
		"neuron 11": {
			"w": [0.309774,0.849751,-0.983644,0.0119345],
			"b":0.00958788
		},
		"neuron 12": {
			"w": [-0.858143,0.37672,-0.222344,0.26968],
			"b":-0.392931
		},
		"neuron 13": {
			"w": [-1.18952,-0.653329,1.72869,0.0822015],
			"b":-0.298689
		},
		"neuron 14": {
			"w": [-0.574869,0.74452,-0.0629989,-1.13272],
			"b":-0.186458
		},
		"neuron 15": {
			"w": [0.152768,1.13365,-0.145739,-1.14527],
			"b":-0.0840123
		},
		"neuron 16": {
			"w": [0.0499393,-0.777216,-0.232577,0.0288864],
			"b":0.374998
		},
		"neuron 17": {
			"w": [-0.165262,-0.0894515,-0.571696,0.399831],
			"b":-0.067361
		},
		"neuron 18": {
			"w": [-0.453322,-0.533235,-2.84947,-0.490903],
			"b":1.45518
		},
		"neuron 19": {
			"w": [0.994296,0.211202,0.534299,-0.196801],
			"b":-0.344572
		},
		"neuron 20": {
			"w": [-0.39153,-0.882816,-0.951794,-0.436234],
			"b":0.475664
		},
		"neuron 21": {
			"w": [-0.500228,-0.864744,0.183582,0.243798],
			"b":-0.431722
		},
		"neuron 22": {
			"w": [-0.205238,0.785657,-0.367705,-0.499853],
			"b":0.254355
		},
		"neuron 23": {
			"w": [-1.45543,0.000888436,-0.125979,-0.394199],
			"b":0.664279
		},
		"neuron 24": {
			"w": [-0.0806245,1.1021,0.0929425,0.442193],
			"b":-0.650465
		},
		"neuron 25": {
			"w": [-0.547563,0.536532,1.36439,0.397574],
			"b":-0.37164
		},
		"neuron 26": {
			"w": [0.464444,0.0512854,-0.131065,0.107107],
			"b":0.880474
		},
		"neuron 27": {
			"w": [0.00254055,0.146354,-0.153278,-0.378778],
			"b":-0.589925
		},
		"neuron 28": {
			"w": [0.603896,-0.358335,-1.30952,-0.0137351],
			"b":0.317976
		},
		"neuron 29": {
			"w": [-0.0710674,-0.493249,0.152449,-0.432945],
			"b":0.148002
		},
		"neuron 30": {
			"w": [-0.904837,-0.10108,0.861624,0.885956],
			"b":0.0702375
		},
		"neuron 31": {
			"w": [0.238381,1.281,0.327752,0.223413],
			"b":-0.776441
		}
	},
	"Layer 1": {
		"neuron 0": {
			"w": [-0.485039,-0.556635,0.912467,-0.469011,-0.854579,-0.0879549,-0.716683,0.276292,0.418274,-3.06475e-05,-0.131894,0.529333,-0.446201,-0.588379,-0.10548,0.353259,-0.128223,0.238406,-0.446538,0.593261,-0.132944,-0.20403,0.0135577,-1.04798,-0.35972,-0.43974,0.609242,0.0687835,0.0437087,0.0436168,-0.141226,0.233133],
			"b":-0.124124
		},
		"neuron 1": {
			"w": [-0.394572,-0.177068,-0.00702276,-0.186918,-0.247123,-0.0313177,0.0927668,-0.0994874,-0.0656369,-0.0183213,-0.200395,0.00102393,-0.254646,-0.239091,-0.102299,-0.117801,-0.162637,0.195058,0.204556,-0.307894,0.0146591,-0.056225,-0.00436778,-0.405558,-0.456461,-0.396337,0.255459,-0.120117,-0.0480164,-0.171832,-0.165951,0.0706566],
			"b":-0.234824
		},
		"neuron 2": {
			"w": [-0.538532,-0.749137,-0.371866,0.0130045,-0.620328,-0.159876,-0.225979,0.574217,0.779915,0.526436,-0.302764,-0.0145847,-0.332254,0.121477,-0.377428,-0.0593434,0.34058,-0.227843,-0.107543,0.171044,0.435281,0.235582,-0.133811,-0.177665,-0.504779,-0.260855,0.324265,0.19631,0.121806,0.127602,-0.023188,-0.17708],
			"b":0.214973
		},
		"neuron 3": {
			"w": [-0.314438,-0.467483,0.0615408,-0.325795,-0.265393,-0.241224,-0.258147,0.225001,0.308911,0.273147,-0.273797,0.00561752,-0.293523,-0.50284,0.0386907,-0.100153,0.16797,0.213616,0.0858887,0.500521,0.146072,-0.140326,-0.265602,0.029785,-0.221841,-0.28892,0.5459,-0.109899,0.300739,-0.0479902,-0.159835,-0.506977],
			"b":-0.0864681
		},
		"neuron 4": {
			"w": [-0.357596,-0.253529,-0.308381,0.0314193,0.077457,-0.152535,-0.0282935,-0.342381,-0.143305,-0.10894,-0.379182,-0.341085,-0.0813232,-0.00634214,-0.215945,0.0637719,-0.105335,-0.101781,-0.154946,-0.0842965,0.201827,-0.224145,-0.359287,-0.200951,-0.0769146,-0.118262,-0.304995,-0.448239,-0.386867,0.0725784,-0.413442,0.00137722],
			"b":0.0291757
		},
		"neuron 5": {
			"w": [-0.289135,-0.224967,-0.724466,-0.228629,-0.368525,0.63799,0.0844219,-0.320558,-0.147875,0.0729848,0.0257308,-0.262142,-0.314317,-0.0889557,-0.314466,-0.738641,0.169497,0.36367,-0.092025,-0.524313,0.707457,0.242843,-0.271472,0.523662,-0.381685,-0.391446,-0.312128,-0.0723305,0.149153,0.175003,0.0893778,-0.253366],
			"b":0.0384389
		},
		"neuron 6": {
			"w": [-0.223091,-0.551507,-0.0359849,-0.135471,-0.333547,0.162852,-0.311704,-0.173082,0.0532656,-0.152657,-0.579698,-0.232027,-0.138798,-0.0353193,-0.263307,-0.150936,-0.170155,-0.0897493,0.159458,0.0816635,0.114088,-0.0182496,-0.414648,-0.426395,-0.0359351,-0.153509,-0.21722,-0.0401449,0.248887,-0.113856,-0.0585787,-0.26037],
			"b":-0.287499
		},
		"neuron 7": {
			"w": [-0.541275,-0.289208,0.413339,-0.493804,-0.573961,-0.155761,-0.371331,-0.693053,-0.255772,-0.229075,0.374427,0.652441,-0.466088,-0.983346,-0.0526206,0.0500642,-0.3061,-0.0161331,0.137713,0.236212,-0.31965,-0.698713,0.0229319,-0.742686,-0.0402262,-0.714804,0.181477,-0.0383238,0.200162,-0.248614,-0.620712,0.0793493],
			"b":-0.289139
		},
		"neuron 8": {
			"w": [-0.568136,-0.646154,1.21057,-0.487831,-0.2271,-0.46814,-0.843362,-0.533371,0.0355009,-0.637328,0.0514209,1.1321,-0.566693,-1.2063,-0.0520883,0.663818,-0.411011,-0.113924,-0.456472,0.436611,-0.959742,-0.681592,0.00408,-1.41095,-0.15651,-0.340388,0.42431,0.134756,-0.103649,-0.54892,-0.503807,0.755008],
			"b":-0.146713
		},
		"neuron 9": {
			"w": [0.000990236,0.0738641,-0.104286,0.066164,0.117747,0.287775,0.09883,-0.351142,0.21228,0.262537,0.244912,0.0249243,-0.511875,-0.276684,0.0671701,-0.0296121,0.503356,0.200106,0.566888,-0.498376,0.313757,0.132595,0.062219,0.458308,-0.104371,-0.127571,0.0792089,0.421833,0.378089,-0.278454,0.00284225,0.00848758],
			"b":0.138369
		},
		"neuron 10": {
			"w": [0.148393,-0.454368,-0.157943,0.429863,-0.109845,-0.78488,-0.451431,1.27145,0.0888079,0.0840643,-0.812662,-0.443508,0.284844,0.69209,-0.222981,0.184249,-0.686507,-0.423483,-1.07132,0.541455,-0.312202,-0.741489,-0.0966392,-0.944045,0.560964,0.637372,-0.324533,-0.191686,-1.0187,-0.617621,0.144683,0.365983],
			"b":0.134293
		},
		"neuron 11": {
			"w": [-0.169274,-0.148833,-0.0636803,0.0122355,-0.411057,0.0545857,-0.194781,0.0284737,0.0698378,0.120432,-0.169465,-0.178667,-0.0896129,-0.295967,-0.133847,-0.25089,0.227285,-0.258469,-0.0632917,0.177635,0.0700947,0.101064,-0.0499054,-0.201776,-0.154363,-0.301095,-0.303528,-0.062996,-0.177939,0.109379,-0.0176646,-0.276107],
			"b":-0.26077
		},
		"neuron 12": {
			"w": [-0.0984611,-0.505524,0.120194,-0.183734,-0.467962,0.0312457,0.0298085,-0.212648,-0.521449,-0.123424,-0.323176,-0.161125,-0.142959,-0.144152,-0.542958,-0.292134,-0.360192,-0.0248539,-0.470703,0.00982025,-0.359384,-0.182809,-0.0887587,-0.388677,0.136031,-0.0725878,-0.117015,0.113259,-0.161074,-0.198482,-0.178327,0.0463642],
			"b":-0.456744
		},
		"neuron 13": {
			"w": [-0.0633289,0.290312,-0.983879,0.135297,0.0395619,0.362976,0.278943,0.0683744,0.274622,0.43072,-0.476374,-0.690293,-0.0242314,0.814955,-0.0370255,-0.521069,0.758926,0.425611,0.128062,-0.478708,1.06503,0.829382,-0.141846,1.19361,-0.195543,0.424165,-0.147306,-0.266766,0.69018,0.496825,0.36875,-0.544907],
			"b":0.58752
		},
		"neuron 14": {
			"w": [-0.57662,-0.598919,0.034607,-0.360296,-0.467825,0.109147,-0.349088,-0.442712,0.10319,0.222466,-0.236815,0.249025,-0.807931,-1.0986,-0.326181,-0.54819,0.362828,-0.0961918,-0.353216,-0.304862,0.198469,-0.110802,-0.142594,0.2111,0.000386896,-1.00763,0.284533,-0.236093,0.448159,-0.195688,-0.487819,0.00606176],
			"b":-0.109556
		},
		"neuron 15": {
			"w": [-0.368191,-0.370383,0.272054,-0.0953827,-0.30207,-0.0458497,-0.349792,0.0783558,-0.0851236,0.18243,-0.108386,0.0343725,-0.532276,-0.4438,-0.367607,-0.232274,-0.269644,-0.0112918,0.130518,0.118553,-0.442007,-0.256005,-0.374763,-0.187081,-0.0533593,-0.443757,0.0436533,-0.26411,0.143885,-0.270948,0.0420947,-0.0218925],
			"b":-0.418738
		},
		"neuron 16": {
			"w": [-0.149923,-0.0288289,0.328776,-0.0609867,0.136907,0.220865,0.297616,-0.547567,-0.237891,-0.0290257,0.301188,0.482922,-0.187334,-0.452858,0.0560857,-0.0718906,-0.0513201,-0.0191527,0.0176079,-0.195765,-0.18027,-0.200535,-0.08747,-0.061817,-0.2507,-0.535059,0.208836,-0.146408,0.213408,0.0762977,0.126986,0.289677],
			"b":-0.0687118
		},
		"neuron 17": {
			"w": [-0.307774,-0.177547,-0.183099,-0.190767,-0.0298623,0.0139902,-0.241504,0.0632358,0.122017,-0.0961753,-0.0549743,-0.0580355,-0.229487,0.497836,-0.087481,-0.00821038,-0.0276866,-0.0205746,0.0315161,-0.104272,-0.181458,-0.0953188,-0.229075,0.114722,-0.347618,0.0976189,-0.082379,0.0860446,-0.106427,-0.21213,-0.357871,0.147205],
			"b":-0.214362
		},
		"neuron 18": {
			"w": [0.739131,0.0592119,0.150256,1.39136,-0.0256027,-1.66816,0.474282,2.03334,0.129886,-0.198624,-1.45917,-0.80336,0.572941,1.13637,0.445173,0.569612,-1.07086,-1.07635,-2.49495,1.01462,-1.46118,-0.957867,-0.171029,-1.21244,1.06671,1.78253,-0.778826,-0.0852444,-2.11052,-0.86013,0.317666,0.979193],
			"b":-0.339749
		},
		"neuron 19": {
			"w": [0.126944,-0.0214302,0.366766,0.124736,0.299897,-0.388803,0.206973,-0.444811,0.101201,0.00156513,0.352019,0.266588,-0.176695,-0.336055,0.147165,-0.0807699,-0.125965,-0.131102,0.360122,-0.404572,-0.0352266,-0.190368,0.331442,-0.0668653,-0.0742636,-0.346963,-0.0161746,-0.128421,-0.123117,-0.204029,-0.20773,0.211201],
			"b":-0.101562
		},
		"neuron 20": {
			"w": [0.180666,0.560832,-1.61816,0.457692,0.0841694,-0.239325,0.35568,1.01921,-0.603198,0.269427,-1.38083,-2.18888,0.71593,1.78075,-0.0608931,-0.556287,-0.706078,-0.660043,-1.20336,-0.726448,0.0577247,0.512664,-0.941689,0.870203,-0.122561,0.875186,-1.14496,-0.30917,-1.62348,0.0386224,0.623226,-0.206945],
			"b":-0.211283
		},
		"neuron 21": {
			"w": [0.216644,-0.259514,-0.831025,0.221635,-0.40753,0.309843,0.0726203,0.172068,0.0609143,0.488959,-0.368482,-0.542698,-0.259291,0.486014,-0.19565,-0.449732,0.444641,-0.00696447,0.292874,0.0451769,0.579389,0.492894,-0.466787,0.746238,-0.180151,-0.0203196,-0.340469,-0.203316,0.147949,0.629091,-0.126761,-0.581204],
			"b":0.182463
		},
		"neuron 22": {
			"w": [0.203765,-0.147053,-0.698584,-0.336778,-0.152867,-0.296467,-0.163546,-0.260902,-0.305793,0.0190743,-0.0204415,-0.196362,-0.0127909,-0.174449,-0.394441,-0.233001,0.0929635,-0.0877097,0.0924251,-0.418137,-0.0693463,0.306571,-0.119192,0.0444052,-0.0819611,-0.176375,-0.391212,-0.352178,0.161113,0.114139,-0.374195,-0.0524135],
			"b":-0.369119
		},
		"neuron 23": {
			"w": [-0.820032,-0.421384,-0.540702,0.00140343,-0.259615,0.532543,-0.423393,0.0240324,-0.0357234,0.361126,-0.235533,0.620933,-0.303461,0.11694,-0.181805,-0.235849,0.769641,0.0530399,0.0476047,0.097462,0.17977,0.119784,-0.229141,-0.0478414,-0.207206,0.0755709,-0.130623,-0.0400956,0.392987,0.0871726,-0.535779,-0.296849],
			"b":0.160838
		},
		"neuron 24": {
			"w": [-0.102516,-0.336807,0.592108,-0.320675,0.264878,0.302123,-0.399991,0.0964465,0.306198,-0.0508145,0.0779406,0.326049,0.0333003,-0.395488,0.191119,0.332615,-0.0750271,-0.234176,-0.123628,0.411263,-0.0397392,-0.548566,-0.0303287,-0.530293,-0.0837625,-0.0590266,0.29484,0.0831439,-0.178784,0.151924,-0.0970592,0.47266],
			"b":-0.199062
		},
		"neuron 25": {
			"w": [0.266851,0.0131599,-0.375826,-0.109811,-0.150338,0.777229,0.404344,-0.0200091,0.281304,0.555286,-0.40654,-0.159676,-0.0126869,-0.0587557,0.0102966,-0.184239,0.171145,0.216915,0.403052,-0.245132,0.421839,0.736914,-0.129017,0.574458,0.0362894,-0.129594,-0.170421,-0.393789,0.252518,0.405248,-0.107599,-0.639891],
			"b":-0.0333483
		},
		"neuron 26": {
			"w": [0.181215,0.136813,-0.731809,0.135969,0.119515,0.206078,0.102422,-0.228337,-0.0249544,0.0164677,-0.0108047,-0.433529,0.107665,0.491978,-0.292236,-0.406881,0.241378,-0.161662,0.324064,-0.574095,0.232105,0.224802,-0.338911,0.657271,0.138392,0.423015,-0.26047,-0.221862,0.0314052,-0.138402,-0.0618094,-0.337081],
			"b":0.0211251
		},
		"neuron 27": {
			"w": [-0.492408,-0.50772,0.399473,0.0994484,-0.122645,0.16292,-0.0688655,-0.0723081,0.116581,0.0985494,0.289988,0.391367,-0.154504,-0.448206,-0.28094,0.0863001,0.271671,0.0897967,-0.361253,0.137164,-0.0901805,0.133546,0.289024,-0.00966958,-0.157936,-0.387758,0.354098,0.0787032,-0.0136211,0.214194,-0.170524,0.111098],
			"b":0.257552
		},
		"neuron 28": {
			"w": [0.387425,0.16692,0.0275333,0.146671,-0.0133503,-0.0608137,0.388961,0.117671,-0.0365085,-0.130732,0.118754,-0.00728026,-0.0439671,0.14459,0.0224611,0.218064,-0.301565,-0.136467,0.0315742,0.276102,-0.278787,-0.286332,0.0894719,0.129433,0.206604,0.203604,-0.0669038,-0.00329185,-0.664618,-0.536072,0.341395,-0.215597],
			"b":-0.195545
		},
		"neuron 29": {
			"w": [-0.023093,-0.0710128,0.538684,0.0981363,0.117534,0.486238,0.0125045,-0.242016,-0.228973,0.0295391,0.19032,0.25567,0.275744,-0.44732,0.121473,0.0638736,0.432486,0.137845,0.12426,0.142731,0.0604195,-0.0483316,0.201374,-0.23065,0.236693,-0.212991,0.383411,-0.0157271,0.0313951,-0.0577321,0.066668,-0.147114],
			"b":-0.0259333
		},
		"neuron 30": {
			"w": [-0.220187,0.00330203,-0.815525,0.359011,-0.00701167,0.0434147,-0.292593,-0.327675,-0.03052,0.105143,-0.315642,-0.0121659,0.00330494,0.359965,-0.113326,-0.0302481,0.328916,0.387597,0.246567,-0.404369,0.537274,0.399563,0.0575164,0.411179,-0.189389,-0.143841,-0.362883,-0.0252922,0.186039,0.598159,-0.0961837,-0.308595],
			"b":0.382258
		},
		"neuron 31": {
			"w": [-0.200013,-0.0245381,-0.486717,-0.0973425,0.071065,0.342398,0.326099,-0.148793,0.171429,-0.195744,0.36654,-0.276714,0.0552246,-0.0987496,-0.31649,-0.156713,-0.00778551,-0.0957886,0.22943,-0.183789,-0.221642,0.262916,-0.164022,0.109824,0.0492519,-0.0460645,-0.12866,-0.175152,-0.011407,-0.0177733,0.0896399,-0.343052],
			"b":0.0587414
		}
	},
	"Layer 2": {
		"neuron 0": {
			"w": [2.01154,0.3702,0.407488,1.3725,-0.0265729,-0.188524,-0.311137,0.284306,1.51625,-0.762528,1.0907,-0.242303,0.633632,-1.19184,-0.0730743,0.0712269,0.242516,0.0774085,-0.436752,-0.286839,-0.276785,-1.75197,-0.1254,0.229654,1.77706,-1.34112,-1.44817,1.36513,0.892569,0.683047,-1.8663,-0.4723],
			"b":0.438978
		},
		"neuron 1": {
			"w": [1.39933,0.318968,-0.740881,-0.11764,-0.259194,-0.368922,-0.433386,0.221697,1.2961,-0.0492526,1.05002,-0.0435754,0.321295,-0.852065,-0.105462,-0.396847,0.229011,0.171122,0.582392,0.069787,-0.391575,-2.13178,0.0859019,-0.527897,1.09035,-1.37904,-1.05968,0.664092,1.6113,0.472882,-1.40332,-0.143019],
			"b":0.615234
		},
		"neuron 2": {
			"w": [-0.408279,0.30808,-0.506408,0.0349535,0.340232,0.0482731,0.350668,0.274561,-0.0923646,0.190584,0.330549,0.546221,-0.431491,0.940276,0.0869627,0.0944448,-0.439712,-0.754667,3.42536,-0.492305,0.737259,-0.136895,0.396627,-0.0163537,-1.17574,-0.257409,0.366344,-1.00705,0.49352,-1.954,0.776703,1.20641],
			"b":-0.234551
		},
		"neuron 3": {
			"w": [0.303725,0.151108,-0.0805025,0.261431,-0.209186,-0.370853,-0.044904,-0.0841786,-0.37535,-0.0584836,0.21598,0.090933,0.246612,-0.224971,-0.19965,0.0322504,-0.154059,0.231832,0.070129,-0.167262,0.0985913,0.134796,-0.0902366,-0.249976,-0.105816,-0.368373,-0.0684993,0.153563,-0.131199,-0.154194,-0.140299,0.0483085],
			"b":0.082286
		}
	}
}
}
